#ifndef W2_H
#define W2_H

const float w2[32][4] = {
  { -0.102914, -0.143086, -0.205403, -0.075223 },
  { -0.126671, -0.231079, 0.024315, 0.114714 },
  { 0.199848, 0.231816, 0.011756, -0.105846 },
  { -0.188119, -0.069499, -0.156133, 0.045586 },
  { -0.394259, -0.028477, 0.191730, -0.185235 },
  { 0.303783, -0.261076, 0.235360, 0.192299 },
  { -0.091724, -0.401323, -0.324474, 0.047090 },
  { 0.344210, -0.040101, 0.219394, -0.274314 },
  { 0.225052, -0.174704, -0.286721, -0.016908 },
  { 0.009479, 0.068768, -0.017938, -0.058199 },
  { 0.118342, 0.176383, -0.076916, 0.257121 },
  { -0.104505, 0.319601, -0.252399, 0.060440 },
  { 0.346169, -0.236236, 0.392495, 0.244217 },
  { -0.083121, -0.002612, -0.328823, -0.036974 },
  { 0.394786, 0.408108, -0.268518, -0.390631 },
  { -0.287999, 0.045435, 0.331599, -0.395801 },
  { -0.123144, 0.397662, 0.031437, -0.006538 },
  { -0.331534, -0.093880, -0.030944, 0.000883 },
  { 0.319051, 0.337999, -0.058379, -0.381369 },
  { 0.305672, 0.049937, -0.261668, 0.097415 },
  { 0.056073, -0.109901, -0.353562, -0.382105 },
  { 0.137971, -0.308649, 0.317030, -0.268325 },
  { 0.045121, 0.218188, 0.287885, 0.310019 },
  { 0.039448, -0.207823, -0.236792, -0.036896 },
  { 0.089979, 0.275252, 0.001673, 0.146440 },
  { 0.159197, -0.315873, 0.253308, -0.061206 },
  { -0.357583, 0.051030, 0.328313, 0.206012 },
  { -0.315733, 0.250271, -0.365565, 0.066844 },
  { -0.308787, 0.077991, -0.277867, 0.327008 },
  { 0.128239, -0.054536, 0.328442, -0.272350 },
  { 0.302193, -0.306748, 0.226566, -0.294688 },
  { -0.278567, 0.289515, -0.046771, -0.206235 }
};

#endif // W2_H
